34 128
1 -0.21328488 -0.059353054 -0.014376448 0.04474818 -0.08435995 -0.09077268 -0.08294877 0.24375477 0.2191356 -0.047198318 0.08895387 -0.08287005 0.029968528 0.22541346 0.11210971 -0.18929057 0.086587064 -0.10814016 0.011674194 0.02380369 -0.03201948 -0.102016985 0.08162246 0.13262777 0.057077203 0.08862194 -0.06837458 -0.0378453 -0.07963791 0.013678188 -0.14283273 0.0961779 -0.0904025 0.08253999 0.05104076 0.17275472 0.047957674 -0.03259634 0.008025816 -0.048232194 -0.16438968 -0.024191497 -0.04939891 0.11242774 0.281945 -0.02906799 -0.061479066 0.08110788 -0.12092157 -0.1860904 0.030349968 -0.05120121 -0.09304364 -0.013292609 -0.12680916 -0.017429486 0.09372163 -0.05311063 0.10190866 0.022473203 -0.058486663 0.041277595 -0.1706872 -0.099118985 -0.03017914 -0.0031626734 0.1832704 0.19010583 -0.137197 0.030578066 0.16370326 -0.021660794 -0.20173377 -0.18345116 0.18536632 -0.085242935 0.05920534 0.03711747 0.09836084 -0.021279177 -0.12386646 0.0187436 -0.036055155 0.014332268 0.1527986 -0.16873467 -0.03736382 0.06531313 0.01458221 0.0855975 -0.07234324 -0.0541955 -0.08462806 0.05576978 -0.06757807 0.12202617 -0.035834234 0.09580733 -0.07213554 0.25070804 0.035579015 0.11568023 -0.28063002 -0.261605 0.13468908 -0.09561134 0.06774566 0.16084203 0.10552339 0.041227654 0.062373076 -0.22095394 -0.17952485 -0.10469461 0.13385299 -0.047368225 -0.09058562 -0.07614434 0.100933634 0.0067443545 0.055898733 -0.038928438 0.013393554 0.15856425 0.08015715 0.16795658 0.053194474 0.018874548
34 -0.14368545 -0.010784139 -0.08300525 -0.036184583 -0.098041095 -0.07734628 -0.1295792 0.12549235 0.26310053 -0.0739346 0.060278982 -0.08687636 -0.0060438947 0.17954999 0.11021209 -0.14705755 0.030027188 -0.07476272 0.063002475 0.046690997 0.06262058 -0.14312227 0.11591322 0.1736706 -0.029771864 0.09339562 -0.0975849 -0.065775156 -0.07662489 0.05752384 -0.051276736 0.10983008 -0.036145218 0.02533857 0.018692547 0.10812343 0.05908301 -0.06757772 0.003096446 -0.074174024 -0.18043801 0.04094493 -0.11518235 0.021493083 0.13143817 -0.08036877 -0.08862114 0.11113068 -0.05533222 -0.2472292 -0.050641492 -0.08693479 -0.016562294 0.080260016 -0.18510833 -0.061261386 0.2033521 -0.064779885 0.072071 0.0024371406 0.019567175 0.107921705 -0.15315789 -0.1380949 -0.050930854 -0.068129435 0.24966763 0.12011704 -0.17590374 0.004608194 0.12815174 -0.07864505 -0.14550099 -0.1757648 0.2092069 -0.05133307 0.03138341 0.025420336 0.0572236 -0.0476416 -0.14030561 0.01824199 0.067204736 0.04284215 0.03600657 -0.032209747 -0.06411859 0.0788574 0.0016384221 0.005703858 0.062073935 -0.024975637 -0.03503555 0.0348991 -0.05900959 0.10678332 -0.07157205 0.117636815 -0.051110905 0.17544308 -0.07748957 0.11613948 -0.28649947 -0.16815102 0.03563311 -0.07946363 0.033514746 0.088769786 0.008422556 0.07121508 0.036646593 -0.24295014 -0.14241198 -0.08467914 0.15550222 -0.06856967 -0.047129508 -0.09817529 0.021527402 0.007594297 0.10625907 0.0043043 -0.08509916 0.14533147 0.02301231 0.040820632 0.015845679 -0.006487538
33 -0.11925422 0.026391642 -0.1234017 -0.073589556 -0.10697189 -0.07798362 -0.16695642 0.06625486 0.31323075 -0.100160584 0.04669613 -0.09832134 -0.029819269 0.1692828 0.113170244 -0.12757923 -0.0074570063 -0.057533238 0.099159636 0.0658374 0.11387324 -0.1646725 0.13332504 0.19911608 -0.08158366 0.098859206 -0.11453612 -0.07589681 -0.06994285 0.0757567 0.0043925047 0.11673886 -0.013331336 -0.0047700023 0.0033155882 0.07396611 0.07330577 -0.090097286 0.006418252 -0.09158933 -0.19435398 0.07733349 -0.14882877 -0.025865769 0.05106187 -0.09967261 -0.110180534 0.13191536 -0.0063882284 -0.28596333 -0.09245789 -0.09092459 0.041577872 0.14529063 -0.20860283 -0.07879085 0.2648221 -0.07353455 0.054962948 -0.020150566 0.066416405 0.14195776 -0.14433257 -0.15025918 -0.06438448 -0.11422593 0.2876474 0.07627643 -0.19368017 -0.01527771 0.10062602 -0.10576967 -0.11111425 -0.17171513 0.2168673 -0.023201905 0.00555346 0.007091273 0.03915269 -0.05814519 -0.16343768 0.020465815 0.12695262 0.058273222 -0.0271071 0.044439092 -0.081173055 0.07865513 0.0063130087 -0.033863388 0.1542777 -0.003931888 -0.004708185 0.02503484 -0.056399062 0.09760544 -0.089929014 0.13888647 -0.048040442 0.12706497 -0.14325055 0.12832974 -0.30422336 -0.11871689 -0.013052693 -0.07570781 0.005055143 0.045834575 -0.042005356 0.08677001 0.019587528 -0.2717884 -0.13491185 -0.06822452 0.16971858 -0.07781271 -0.023838766 -0.121799156 -0.025717042 0.012260737 0.14967631 0.036058906 -0.14436427 0.15454482 -0.012130443 -0.04170935 -0.0017192498 -0.023835337
3 -0.15421382 -0.004769254 -0.07054433 -0.021362657 -0.09383093 -0.07595395 -0.12989102 0.14160956 0.2637486 -0.076039016 0.0641915 -0.096637174 -0.0072123758 0.18848227 0.10453018 -0.14232744 0.032779705 -0.0791039 0.0595682 0.04229807 0.04515374 -0.13322106 0.1073693 0.16170974 -0.014722396 0.08731477 -0.09016522 -0.045484617 -0.069489226 0.04378567 -0.058421016 0.1007973 -0.039706144 0.025595833 0.017767398 0.1120723 0.060053375 -0.05893685 0.009269468 -0.073873445 -0.17256506 0.030157292 -0.09513074 0.039772928 0.14179139 -0.0660194 -0.084023565 0.10981295 -0.053062115 -0.23607598 -0.042060066 -0.07408985 -0.015948724 0.07759291 -0.17127863 -0.054783043 0.1824731 -0.06405484 0.07251538 -0.008188833 0.0057565207 0.09744226 -0.15050091 -0.11926324 -0.048143666 -0.0649399 0.23293102 0.12588362 -0.1726026 0.0024400847 0.12814648 -0.06898741 -0.14545736 -0.16667733 0.20241031 -0.046629477 0.03171269 0.019391704 0.05443545 -0.042670757 -0.14825319 0.019662807 0.052286725 0.03784826 0.048922095 -0.046727996 -0.06265879 0.07566255 0.007911508 0.018726235 0.05920661 -0.020443466 -0.036506023 0.043876525 -0.05675745 0.1040348 -0.065869026 0.11764019 -0.0557529 0.17738815 -0.06431584 0.12777118 -0.290191 -0.17474008 0.056341622 -0.087758504 0.029379662 0.095098294 0.019498607 0.065571606 0.03184049 -0.24449754 -0.14667773 -0.08784428 0.15111625 -0.057442673 -0.043607954 -0.09311791 0.029900268 0.012180013 0.10384534 -0.004796892 -0.07552412 0.153663 0.029479038 0.057090204 0.017480258 -0.00401187
2 -0.18415016 -0.023975827 -0.04880251 0.009793984 -0.08812206 -0.08028863 -0.11482027 0.18803261 0.24279255 -0.0608235 0.06839277 -0.097071685 0.013930762 0.19983478 0.096642934 -0.15857257 0.05419703 -0.09766281 0.029116599 0.031540114 0.006995743 -0.12495632 0.09816551 0.13850354 0.02045976 0.08040702 -0.07321799 -0.033781882 -0.07166322 0.02930513 -0.09280002 0.09740458 -0.060359504 0.04964712 0.03307172 0.14147048 0.042555474 -0.04883818 0.016487645 -0.06776434 -0.17425323 -0.0004000595 -0.06976978 0.07447741 0.21608897 -0.053786255 -0.066215806 0.100523606 -0.089564465 -0.2106723 -0.0046133692 -0.055426743 -0.053986665 0.035350494 -0.14892043 -0.041792087 0.13886297 -0.054224737 0.08505321 0.0038281314 -0.028077656 0.07207105 -0.16207942 -0.10632904 -0.036384106 -0.0306603 0.21638031 0.16021003 -0.15479328 0.019616628 0.15627192 -0.048789103 -0.17303218 -0.16677089 0.20581122 -0.06464422 0.049334843 0.023236947 0.066637434 -0.033712134 -0.14263348 0.013780246 0.0063236253 0.027100205 0.10553489 -0.108673826 -0.049446117 0.07876491 0.010229812 0.05478632 0.00043705106 -0.026321905 -0.05152916 0.055594232 -0.0642312 0.11270113 -0.056685712 0.100499794 -0.06947319 0.2104854 -0.021061689 0.12329346 -0.28381756 -0.20765452 0.09805668 -0.08800966 0.049668424 0.12896152 0.055335917 0.0611229 0.048475776 -0.2265484 -0.16139768 -0.09681363 0.1476053 -0.044056103 -0.06208925 -0.07965902 0.060250103 0.008184496 0.08110272 -0.023479216 -0.041201167 0.16034225 0.057627898 0.11919015 0.03300161 0.0042216945
4 -0.18725112 -0.041112423 -0.026923263 0.026028244 -0.08077757 -0.07963204 -0.094502926 0.20722122 0.2204342 -0.05572195 0.078371346 -0.08653577 0.01921159 0.19957808 0.10524037 -0.16797987 0.066226654 -0.09369073 0.025078582 0.023513976 -0.014268457 -0.102605015 0.08718699 0.13049926 0.039818168 0.07543419 -0.06510838 -0.034950018 -0.070017345 0.020667924 -0.1126612 0.086940885 -0.06893719 0.061021905 0.03679718 0.1481718 0.04537415 -0.034368414 0.015854444 -0.056683067 -0.1603639 -0.012626557 -0.054796696 0.08748391 0.22714685 -0.03745684 -0.062361106 0.091737315 -0.10373054 -0.19668312 0.012143874 -0.05797101 -0.06801078 0.011434764 -0.13935913 -0.025807533 0.11443945 -0.050944805 0.09142179 0.01222302 -0.042391673 0.053142026 -0.15624662 -0.09456144 -0.02751916 -0.021732947 0.18665303 0.16267817 -0.14299232 0.018885449 0.14521256 -0.038154017 -0.1770231 -0.16616075 0.18507642 -0.07479482 0.049088873 0.03540865 0.07684439 -0.033210695 -0.12487119 0.014337815 -0.0111176055 0.015798332 0.120880865 -0.1283989 -0.045036465 0.06958689 0.006464785 0.06513801 -0.034025677 -0.04179328 -0.06581235 0.053388096 -0.06423791 0.112486534 -0.04135216 0.09558952 -0.06069077 0.22064538 0.00077100587 0.11705632 -0.2700794 -0.22559439 0.110399574 -0.09447584 0.052865442 0.13399416 0.07576822 0.04520946 0.046384364 -0.21655208 -0.16344981 -0.093016565 0.12839837 -0.041945256 -0.06946273 -0.07073443 0.07703609 0.009338694 0.062219337 -0.029492307 -0.008377984 0.15383749 0.063678995 0.13684519 0.044146348 0.008159899
32 -0.14872839 0.007102663 -0.10039899 -0.0489913 -0.11255973 -0.07945219 -0.14868665 0.11516201 0.3009033 -0.09780275 0.055804897 -0.1064467 -0.015751455 0.19146568 0.12408313 -0.14222293 0.017916413 -0.06852265 0.08187428 0.059232254 0.07662585 -0.15834345 0.1262243 0.17928292 -0.036753416 0.10000552 -0.10773369 -0.0597057 -0.073466435 0.06469352 -0.040058743 0.10898288 -0.033141878 0.011744367 0.016192261 0.10354402 0.064543635 -0.07156028 0.0093402555 -0.08448266 -0.1897549 0.05804197 -0.12737715 0.016699329 0.11143666 -0.08627587 -0.09933118 0.12841685 -0.044752173 -0.26448545 -0.060619317 -0.08548309 0.0054043257 0.09901231 -0.18944107 -0.0725609 0.22523843 -0.065157466 0.06972224 -0.010565307 0.038633153 0.118563764 -0.15180203 -0.14176898 -0.058578994 -0.078759536 0.26717097 0.10474638 -0.18806368 0.0008769453 0.11522629 -0.0829333 -0.13546725 -0.17991553 0.21473883 -0.035898652 0.018147938 0.021513242 0.055030465 -0.049265686 -0.1595474 0.014231855 0.08987078 0.045215413 0.018392026 -0.014288353 -0.0738456 0.0767165 0.0047925026 -0.006318423 0.09917518 -0.01779366 -0.02820636 0.03517295 -0.057286598 0.104604624 -0.07738348 0.12501788 -0.048980933 0.15599664 -0.096926175 0.12818368 -0.29878795 -0.15437591 0.026291344 -0.084083155 0.018711662 0.07854242 -0.0031251637 0.0792646 0.025749497 -0.2594594 -0.14636365 -0.083924934 0.16775882 -0.07327242 -0.037064064 -0.11067885 0.016230317 0.006639626 0.12820163 0.007581635 -0.10205631 0.15659814 0.015091771 0.011705882 0.020117488 -0.011217399
14 -0.16814786 -0.017818196 -0.058351167 -0.003673102 -0.09129043 -0.0798551 -0.11921713 0.16294459 0.25013515 -0.06593283 0.06646776 -0.09178234 0.005417705 0.19218473 0.10724558 -0.15262733 0.051316857 -0.08634185 0.046149205 0.036332823 0.020736521 -0.12976646 0.097412914 0.1562284 -7.321284e-05 0.085081756 -0.087159425 -0.04695917 -0.073401496 0.03460972 -0.08030654 0.103591785 -0.055912968 0.03751223 0.029091207 0.13247935 0.05107023 -0.056335885 0.007289571 -0.06458214 -0.17598833 0.011904521 -0.08365952 0.05785829 0.1814271 -0.06174051 -0.07219626 0.10181501 -0.07843889 -0.22323298 -0.026406806 -0.06813629 -0.036161322 0.05445896 -0.15612064 -0.05062952 0.16517535 -0.061907783 0.07815178 0.001384404 -0.008624651 0.085511155 -0.15776438 -0.11550877 -0.04449636 -0.042994525 0.22737378 0.14520113 -0.16344644 0.008947158 0.14278015 -0.061479613 -0.1595684 -0.17023961 0.20201711 -0.063879415 0.04225942 0.027745951 0.065164536 -0.037448965 -0.14096479 0.016443405 0.026001256 0.03388351 0.07981039 -0.07706173 -0.051537376 0.07338544 0.0066641285 0.038285207 0.023506578 -0.027115647 -0.047094423 0.049819566 -0.062160358 0.10870597 -0.061521217 0.110453606 -0.06177032 0.20228101 -0.037515238 0.12698066 -0.2885254 -0.20308492 0.07694491 -0.09047422 0.04536896 0.11902568 0.043821458 0.061621167 0.03977198 -0.24228044 -0.16034542 -0.09108501 0.15171131 -0.054744635 -0.056733176 -0.09000409 0.0495499 0.008538296 0.09444245 -0.014616477 -0.05478068 0.15847328 0.048291717 0.0909195 0.026830858 0.0023505897
24 -0.12915221 0.014613063 -0.109209485 -0.065650165 -0.11008715 -0.069956414 -0.15136483 0.08333984 0.30046034 -0.09537842 0.048572626 -0.09952104 -0.023439575 0.17169127 0.11929463 -0.12813032 0.00462874 -0.06060451 0.09503988 0.05951387 0.09510644 -0.15758573 0.12483843 0.18992078 -0.06424891 0.10327708 -0.1123624 -0.0709079 -0.07453793 0.06989408 -0.013548881 0.11531579 -0.017122982 0.0015113484 0.0072385613 0.086699955 0.07197162 -0.0824123 0.005624103 -0.082710214 -0.18858373 0.067589186 -0.14212328 -0.0075524147 0.076261915 -0.09559325 -0.10883892 0.13214377 -0.019273516 -0.26880434 -0.08028251 -0.09098873 0.025079582 0.12458664 -0.19991758 -0.07841472 0.24521846 -0.07288475 0.055754878 -0.016631886 0.04864571 0.12599118 -0.1406775 -0.14760418 -0.057333365 -0.0968761 0.27604547 0.0859751 -0.1924962 -0.011073255 0.103825726 -0.08984761 -0.12170913 -0.17199573 0.20843376 -0.032781657 0.010684264 0.011168029 0.046846032 -0.052492514 -0.15838957 0.020944057 0.11088744 0.05765498 -0.0058975904 0.021576907 -0.07680161 0.076641366 0.003042656 -0.024283351 0.123506226 -0.0122038685 -0.018077236 0.028061341 -0.054665964 0.09851667 -0.08496598 0.13094808 -0.046292294 0.14296944 -0.1185529 0.12641577 -0.29817992 -0.13496605 0.000417091 -0.07999214 0.011413034 0.0599778 -0.027634319 0.07695752 0.020859344 -0.26222122 -0.13568759 -0.0755982 0.16925944 -0.078457244 -0.03033351 -0.11500483 -0.008743322 0.004775884 0.13628697 0.021725232 -0.12049882 0.15170044 -9.1915455e-05 -0.017680641 0.008148538 -0.016689627
6 -0.2194105 -0.07294779 -0.0040435307 0.042842194 -0.08587194 -0.09210866 -0.072260976 0.26538855 0.21109599 -0.052660726 0.0956749 -0.07469215 0.043375526 0.2355085 0.12691322 -0.20821247 0.09175205 -0.09775249 0.0058575007 0.023621898 -0.037079886 -0.08777868 0.07274356 0.12913023 0.0701725 0.09257273 -0.06836813 -0.044766765 -0.07225488 0.023230396 -0.16312549 0.09301027 -0.09366172 0.09431077 0.061416633 0.1727263 0.046350304 -0.018690173 0.0024401927 -0.042168405 -0.14766234 -0.035183914 -0.04232541 0.11301028 0.28700814 -0.02539522 -0.06833883 0.07774914 -0.14075652 -0.18982166 0.03706982 -0.066386014 -0.10914184 -0.033458784 -0.13832688 -0.005004012 0.081915274 -0.051830713 0.11710461 0.03998551 -0.054452855 0.03841912 -0.17522754 -0.11126738 -0.033004437 0.007844098 0.16956057 0.18993674 -0.13035208 0.024402536 0.1528717 -0.023109602 -0.208655 -0.19702214 0.17679386 -0.09328004 0.062062107 0.055238463 0.109350555 -0.021281365 -0.10405863 0.017583653 -0.039266706 0.0056196647 0.15381674 -0.17791905 -0.031293914 0.064703815 0.0036748848 0.09014991 -0.104721434 -0.076804236 -0.0899492 0.055209983 -0.07650902 0.12499296 -0.0218436 0.097731344 -0.07122392 0.2544908 0.047832843 0.100939624 -0.26717743 -0.26805496 0.13685901 -0.09704987 0.07866843 0.1659279 0.11308742 0.028105138 0.06575738 -0.20477325 -0.18032832 -0.10909463 0.12981693 -0.050556652 -0.100706056 -0.070456676 0.12573178 -0.005525227 0.03949554 -0.044037104 0.031028945 0.14525963 0.091934666 0.1704573 0.07118597 0.023706798
8 -0.17215197 -0.02167952 -0.052070364 0.005239948 -0.08611438 -0.08007135 -0.11511858 0.16849893 0.24190433 -0.05970971 0.06642475 -0.09704856 0.007892902 0.19048996 0.09648393 -0.15569583 0.052198324 -0.09209876 0.03496185 0.030021332 0.011528047 -0.12428176 0.10147064 0.14268899 0.015132324 0.07693623 -0.0801596 -0.036975272 -0.07630575 0.032350358 -0.08306417 0.09769596 -0.05351493 0.04231054 0.025881002 0.1358137 0.04402685 -0.055819035 0.016098484 -0.06654997 -0.17380586 0.008187513 -0.07110952 0.06726034 0.19762315 -0.050595935 -0.06422132 0.09744302 -0.082968764 -0.215788 -0.016108828 -0.05776598 -0.04089304 0.040784948 -0.14516424 -0.04804807 0.1515777 -0.05212644 0.08133257 -0.0020004427 -0.023913996 0.07415217 -0.15393068 -0.1024315 -0.033038475 -0.03528506 0.21093452 0.15090127 -0.15555935 0.019283943 0.1443492 -0.051734388 -0.1647113 -0.15973473 0.19726653 -0.065577075 0.043174487 0.02136002 0.060389046 -0.038396146 -0.13737479 0.018506208 0.018573172 0.029132692 0.09387538 -0.094067976 -0.051836923 0.070770025 0.013290964 0.03947916 0.007513004 -0.03047302 -0.049276955 0.055486638 -0.056171376 0.111132815 -0.057030953 0.1081234 -0.06507603 0.20388639 -0.03209192 0.12604159 -0.284149 -0.20205504 0.0856075 -0.08737594 0.040676784 0.12289476 0.051098835 0.06285623 0.03938066 -0.23264003 -0.16228382 -0.09137045 0.14351623 -0.04660059 -0.058780614 -0.08576046 0.053541087 0.013658336 0.08765233 -0.014847504 -0.042803504 0.15609778 0.050308418 0.103391424 0.031528197 0.006622645
7 -0.25408873 -0.09030758 0.008354436 0.06602614 -0.09110335 -0.10001852 -0.06957655 0.3147087 0.21837698 -0.046915077 0.109886475 -0.072802626 0.05534977 0.27105466 0.14005093 -0.24259737 0.112852044 -0.115535565 -0.0006938297 0.020883147 -0.061613515 -0.08084011 0.07178595 0.13661599 0.09785958 0.10492436 -0.062699005 -0.05085708 -0.07500791 0.014108357 -0.20394982 0.09975056 -0.11516226 0.11213026 0.07767032 0.20164196 0.04584063 -0.018123241 0.003082991 -0.040064048 -0.16096063 -0.053991724 -0.03780232 0.13689642 0.34483397 -0.019571554 -0.07222291 0.07787042 -0.17108436 -0.20050262 0.054815713 -0.07185331 -0.1362554 -0.0593421 -0.1459687 0.0022467396 0.0691155 -0.054773685 0.13933405 0.052398592 -0.07206005 0.02892849 -0.19584483 -0.11755802 -0.03181422 0.016008131 0.16855282 0.21948484 -0.12781247 0.031925894 0.17427176 -0.010022835 -0.24456073 -0.21949989 0.18852888 -0.11070985 0.06784687 0.06652724 0.12236467 -0.022377536 -0.10543732 0.015605929 -0.06841075 0.0014141409 0.18701605 -0.22472674 -0.030469485 0.059186373 0.003460323 0.117167756 -0.14796506 -0.09251098 -0.113452576 0.05931929 -0.08537635 0.13259679 -0.017123409 0.101422615 -0.07431539 0.29045892 0.07778249 0.110096775 -0.28253293 -0.31497684 0.16612342 -0.11045439 0.092094526 0.19328263 0.1402959 0.019898739 0.07360989 -0.2223252 -0.20238264 -0.12389988 0.13352783 -0.050706625 -0.11919767 -0.07366821 0.15519595 -0.00973117 0.030406909 -0.059945337 0.058993455 0.16350573 0.10843597 0.21237946 0.084835134 0.02760611
30 -0.11750963 0.01607454 -0.11610687 -0.0702421 -0.1040001 -0.07397905 -0.15444438 0.06840159 0.29550585 -0.0908018 0.04568215 -0.097983874 -0.029665858 0.16277152 0.11580372 -0.12311587 0.009085416 -0.0636394 0.09457351 0.06392966 0.09954423 -0.16140853 0.12487419 0.18962522 -0.07305265 0.10523223 -0.1157723 -0.07530854 -0.07865562 0.06708101 -0.0037676075 0.11668863 -0.01762026 -0.0022345972 0.0031978565 0.082758084 0.0715403 -0.08459745 0.0040520183 -0.085674144 -0.19593424 0.06880013 -0.14335524 -0.014549545 0.07103132 -0.105279595 -0.10245426 0.12808539 -0.013693712 -0.2761588 -0.086473584 -0.094448075 0.028913615 0.13586888 -0.2042828 -0.078966916 0.25712863 -0.07171464 0.055993732 -0.016351586 0.058641914 0.133115 -0.14818776 -0.15312077 -0.056278136 -0.10432143 0.27737468 0.07822696 -0.19256754 -0.013287012 0.1099545 -0.09861741 -0.111184925 -0.17075081 0.21260162 -0.033105917 0.00656595 0.013102729 0.034436982 -0.056248717 -0.16020188 0.014733398 0.11223351 0.05365548 -0.021094598 0.035999525 -0.0691305 0.07737411 0.004775882 -0.028836925 0.1410666 -0.0009872996 -0.0062157023 0.028922232 -0.05583107 0.10137217 -0.0909363 0.123005755 -0.037653647 0.12539399 -0.12707025 0.12095651 -0.2833543 -0.1185625 -0.0027329938 -0.07176765 0.009138219 0.05196707 -0.036889557 0.07860757 0.020349674 -0.25694627 -0.13052934 -0.07121536 0.16377786 -0.069920145 -0.025583833 -0.10961465 -0.020322043 0.0077362675 0.14091246 0.025666583 -0.13491367 0.14266361 -0.0015429573 -0.032993097 -0.0052087083 -0.020612003
9 -0.15718572 -0.0039886315 -0.08505657 -0.033729598 -0.09896051 -0.07811153 -0.14059475 0.13259153 0.2773297 -0.07425501 0.060831305 -0.09673365 -0.009500315 0.19038284 0.111362025 -0.15262537 0.03585766 -0.08016664 0.05858507 0.04259901 0.057480305 -0.1450588 0.112051226 0.17018078 -0.022088058 0.09050917 -0.096061215 -0.05978392 -0.07260742 0.0499673 -0.053324055 0.111711346 -0.038048714 0.024263564 0.017154569 0.11492683 0.05375769 -0.07068937 0.006005557 -0.07771631 -0.18500827 0.036747646 -0.10719669 0.02907537 0.1386083 -0.0770028 -0.090750284 0.11013113 -0.056443915 -0.24597281 -0.045087744 -0.08227117 -0.015131722 0.084688075 -0.17630461 -0.06006197 0.19798148 -0.06866701 0.072252974 -0.001317468 0.013297662 0.10560064 -0.15682533 -0.13158864 -0.042404223 -0.06490212 0.2436665 0.12247736 -0.17322426 0.0016627983 0.13510594 -0.07754849 -0.1430892 -0.16946216 0.20897616 -0.053641025 0.032585137 0.019275043 0.049419355 -0.047851827 -0.14264844 0.019865874 0.063977376 0.043192398 0.045390602 -0.039487474 -0.060268078 0.07738622 0.0054232003 0.007047448 0.06543068 -0.01640337 -0.03232594 0.03991699 -0.059891347 0.10609858 -0.071592025 0.119058 -0.052836612 0.1729751 -0.072690815 0.11792867 -0.28429246 -0.16423033 0.043959234 -0.07789389 0.027398663 0.090529576 0.0077204127 0.0740153 0.033882342 -0.24756396 -0.14607446 -0.08284864 0.15740412 -0.06345036 -0.047461223 -0.09811568 0.025791015 0.0032972374 0.10949692 0.007238997 -0.08885344 0.15104027 0.029389298 0.044764917 0.017655488 -0.0038244012
28 -0.13906196 0.010676943 -0.102718525 -0.056828972 -0.11028669 -0.07376741 -0.15914133 0.099661104 0.2999294 -0.09129619 0.056862578 -0.09702926 -0.020749781 0.184788 0.112612754 -0.14219385 0.015838668 -0.066338286 0.08658783 0.05044513 0.08776229 -0.16204596 0.12635675 0.18727349 -0.05510998 0.1018683 -0.10939647 -0.061773904 -0.07478483 0.05961271 -0.02042674 0.110058546 -0.024808623 0.0031825402 0.0152229555 0.10169915 0.0676997 -0.07969661 0.0054448973 -0.08306873 -0.18172029 0.057571404 -0.1333462 0.007567413 0.09984406 -0.091988765 -0.103980035 0.12268624 -0.028221063 -0.26306197 -0.074147545 -0.08440131 0.017158618 0.11178202 -0.1859685 -0.070341006 0.23301078 -0.068438105 0.060823712 -0.014912205 0.043404717 0.12437243 -0.14879806 -0.14072457 -0.05250296 -0.08695591 0.27467847 0.10010275 -0.1871822 -0.00074706733 0.11902541 -0.091259025 -0.12436122 -0.17757243 0.21736306 -0.04223522 0.015693722 0.011220817 0.0522305 -0.049430247 -0.15745503 0.017823191 0.09725746 0.05610955 0.00797502 -0.0036574025 -0.07579213 0.08145843 0.0008716425 -0.010732912 0.11300142 -0.015159921 -0.022486517 0.035623826 -0.061070338 0.10715319 -0.08035003 0.1294394 -0.053849664 0.15667097 -0.10443831 0.12826684 -0.30386662 -0.14678067 0.018740984 -0.07981742 0.022175426 0.076221265 -0.0098631345 0.082322665 0.027096171 -0.26436052 -0.14201672 -0.0743543 0.17138505 -0.07501224 -0.036897395 -0.1122591 0.003213079 0.0054161637 0.13398492 0.018578533 -0.118217565 0.1540333 0.013207299 0.00051359815 0.006917437 -0.012046585
11 -0.22357285 -0.08036387 -0.005076952 0.051948708 -0.0880638 -0.09207325 -0.07499102 0.2756943 0.2111938 -0.052539717 0.09698348 -0.076370016 0.046830248 0.24582197 0.13149273 -0.21855527 0.098988034 -0.10096933 0.004179474 0.023405084 -0.044755735 -0.08767671 0.07335919 0.13454483 0.07742933 0.09372635 -0.06393114 -0.04927994 -0.075605996 0.020803025 -0.17869766 0.09552612 -0.09763785 0.09957016 0.067595735 0.18233326 0.04135272 -0.019269407 0.007918571 -0.0476459 -0.15619934 -0.03479751 -0.049719173 0.11633352 0.3016149 -0.029743386 -0.07047913 0.08242664 -0.1525901 -0.1994659 0.04550313 -0.0678426 -0.1158544 -0.04192021 -0.14185075 -0.0020920818 0.082542606 -0.054212976 0.12909867 0.042322066 -0.062292516 0.04066059 -0.18397221 -0.11081845 -0.03125777 0.0037673179 0.17106836 0.19827212 -0.133082 0.027004069 0.1671402 -0.015332003 -0.21960293 -0.20493394 0.18227904 -0.09897744 0.059979726 0.05712963 0.112878464 -0.027786251 -0.10385923 0.019215537 -0.049495127 0.007053883 0.16394083 -0.19558798 -0.030477 0.061361164 0.0029663062 0.1028424 -0.11495792 -0.08117829 -0.09508352 0.05621464 -0.08175891 0.12656613 -0.020301752 0.100002065 -0.07131266 0.26762173 0.0527994 0.1059074 -0.27328423 -0.2798818 0.14187416 -0.10252819 0.087977596 0.17218314 0.121193655 0.026496183 0.067530215 -0.21389264 -0.19118816 -0.11324103 0.1347074 -0.049544185 -0.10512207 -0.07330558 0.13506241 -0.008933809 0.044437572 -0.052174512 0.040387448 0.1558126 0.0932418 0.18538083 0.073215336 0.026777258
20 -0.18802795 -0.02199277 -0.05985704 -0.0009716001 -0.09631887 -0.08601782 -0.12500657 0.1838539 0.26788342 -0.073897935 0.07331187 -0.09704678 0.0044918815 0.21018642 0.11226074 -0.16965728 0.05562321 -0.09167709 0.047327314 0.041905385 0.019865459 -0.134185 0.10778996 0.16024987 0.0069456007 0.09522411 -0.0893253 -0.044898152 -0.079782315 0.03953319 -0.08951907 0.10382957 -0.06260252 0.04322155 0.031977795 0.13817686 0.056503378 -0.060172476 0.013183415 -0.066209875 -0.18364076 0.013121211 -0.09058893 0.062127445 0.20325932 -0.06230784 -0.07525603 0.10349921 -0.082786426 -0.23163049 -0.023196327 -0.07209439 -0.048939798 0.048410762 -0.16847762 -0.0515624 0.16702347 -0.06222277 0.08900025 0.004207085 -0.015572402 0.086804196 -0.16559127 -0.11608355 -0.04331007 -0.046855528 0.23726816 0.15592003 -0.16987658 0.014653667 0.15041587 -0.05461862 -0.17655289 -0.18616231 0.21632639 -0.066678636 0.041510355 0.031745907 0.071705885 -0.036363404 -0.14821468 0.016033653 0.022078602 0.032966338 0.093227394 -0.092838116 -0.058761433 0.08100227 0.011994358 0.04036727 0.012571901 -0.030830598 -0.051863875 0.05192616 -0.063296385 0.1155236 -0.06559452 0.121157095 -0.06495444 0.21968368 -0.039447445 0.13190673 -0.3074492 -0.21709013 0.08563489 -0.09043604 0.048608392 0.121806666 0.050195757 0.06648051 0.044210598 -0.25150365 -0.16511504 -0.09467033 0.15589078 -0.05656704 -0.06131166 -0.09585453 0.058186032 0.008072664 0.09289392 -0.016159156 -0.050667338 0.16235493 0.051739212 0.102129996 0.030364502 -0.000253583
25 -0.16071086 0.00053597783 -0.08525344 -0.04175073 -0.1084949 -0.073701456 -0.14824957 0.12728329 0.29507962 -0.09340178 0.06258466 -0.09573861 -0.008759764 0.19935063 0.12153769 -0.14807372 0.029625095 -0.07363709 0.079163924 0.05171552 0.06937134 -0.14977382 0.11560557 0.18105312 -0.030950667 0.10810105 -0.10689372 -0.06523955 -0.077525176 0.057103425 -0.050457757 0.10645852 -0.033752557 0.023883624 0.019095434 0.10513949 0.066267736 -0.06915556 0.0058403127 -0.07730846 -0.18585493 0.051032893 -0.1237868 0.025350643 0.1284161 -0.08861847 -0.10255205 0.12108984 -0.046829153 -0.26184642 -0.049742293 -0.07863288 -0.007877977 0.090820774 -0.188839 -0.062206503 0.21984094 -0.06309355 0.07316081 -0.007093874 0.03259956 0.11534223 -0.15175603 -0.14542426 -0.051282994 -0.071596585 0.2683477 0.11056533 -0.1881766 0.00042260363 0.12603164 -0.07620291 -0.14908877 -0.19024166 0.21668944 -0.042047787 0.023620307 0.01941101 0.05823758 -0.047651377 -0.15710585 0.022304151 0.074493125 0.041389316 0.028319407 -0.02702373 -0.06814366 0.07633727 0.0052710185 0.0033543692 0.08333888 -0.024801794 -0.030126404 0.035299525 -0.062817104 0.10699315 -0.07913811 0.12417491 -0.05089273 0.16509402 -0.077900186 0.122812435 -0.30263814 -0.17236981 0.033200923 -0.08752552 0.027978247 0.08690961 0.0057559856 0.06908286 0.028785137 -0.25728506 -0.15056516 -0.08576193 0.17357518 -0.0769942 -0.047112357 -0.107237875 0.02132591 0.008382161 0.1285527 0.008340637 -0.09746725 0.16124177 0.022929404 0.025088126 0.020879038 -0.011348808
26 -0.15840338 -0.003182895 -0.084699474 -0.04177346 -0.10473039 -0.07179222 -0.14509925 0.12465498 0.2870264 -0.09181179 0.058148846 -0.10019172 -0.006360564 0.18779892 0.12062416 -0.15141234 0.029738497 -0.06999377 0.07383312 0.05601895 0.06621085 -0.15215164 0.11899966 0.1802307 -0.02894305 0.10813502 -0.099025644 -0.06367875 -0.07417208 0.061664306 -0.04829388 0.11111634 -0.038893577 0.023660596 0.021564815 0.10936128 0.066069916 -0.06433991 0.010078107 -0.07588178 -0.17890984 0.0493584 -0.12254341 0.027757088 0.13225156 -0.08258356 -0.09624412 0.122478105 -0.049068548 -0.25266773 -0.05649032 -0.08552363 -0.00824698 0.08671771 -0.1845283 -0.06827009 0.2128468 -0.06846105 0.077497534 -0.0067777787 0.02950565 0.10919788 -0.15619472 -0.1422115 -0.05511889 -0.06942502 0.26789227 0.111420944 -0.18704535 0.007476281 0.12528065 -0.08053579 -0.14739135 -0.18866833 0.2179354 -0.043800123 0.028187294 0.02589401 0.061082765 -0.043924358 -0.15000854 0.014805022 0.0765032 0.049469315 0.031852953 -0.032882083 -0.071049325 0.08007709 0.003955208 0.0003243981 0.073575184 -0.024767542 -0.03331326 0.03185355 -0.058600847 0.11171867 -0.0774944 0.122866884 -0.054345056 0.17166676 -0.08261227 0.12616305 -0.30127305 -0.17094277 0.031500753 -0.083903335 0.03407608 0.0913131 0.003486941 0.07403144 0.031179484 -0.2600961 -0.14744914 -0.09018452 0.17055173 -0.07037376 -0.0492838 -0.10189146 0.021005709 0.0034456945 0.124865055 0.0071860063 -0.09105793 0.15392418 0.02453331 0.028599503 0.021114536 -0.008481776
5 -0.22964719 -0.0756294 -0.013170991 0.03828594 -0.09229732 -0.09683412 -0.08660934 0.2679764 0.23319177 -0.059990484 0.09631156 -0.07636965 0.04460875 0.2509908 0.13518465 -0.21640559 0.090302154 -0.10539052 0.014714468 0.02512812 -0.030454526 -0.09682377 0.08043163 0.1515908 0.06359751 0.105577126 -0.07936447 -0.056499872 -0.07760985 0.027308166 -0.16741641 0.1071665 -0.09653705 0.093990326 0.061819114 0.18649429 0.052915953 -0.023528848 0.0021413977 -0.04893822 -0.1662874 -0.027743611 -0.06202437 0.10889734 0.29706776 -0.03568559 -0.0794725 0.08935544 -0.14447819 -0.21188869 0.026565086 -0.075491935 -0.10841819 -0.027022755 -0.14691806 -0.0098812645 0.09472511 -0.059397563 0.12189536 0.04082291 -0.0470764 0.045728616 -0.1863447 -0.12039608 -0.03025965 -0.004200116 0.19138965 0.19466011 -0.13883862 0.024201998 0.16237032 -0.02675651 -0.21996664 -0.20646594 0.19761 -0.0976392 0.06117558 0.055910055 0.112958305 -0.031049103 -0.11260839 0.01671634 -0.032728426 0.016358806 0.15075102 -0.17902042 -0.040459838 0.06783871 0.0021522623 0.0905343 -0.09769716 -0.07603995 -0.09473979 0.05251443 -0.08336377 0.12851271 -0.024888791 0.11173064 -0.07033349 0.27156973 0.042565484 0.11329294 -0.2935173 -0.28121337 0.13965587 -0.103812724 0.08355921 0.16963097 0.11333525 0.032755636 0.06502578 -0.23082209 -0.19540407 -0.115065984 0.139958 -0.060330313 -0.10011548 -0.079892516 0.124285765 -0.005665065 0.052464955 -0.04380476 0.02765067 0.16077243 0.08833087 0.17011714 0.065943465 0.016682666
31 -0.17070676 -0.02172799 -0.06540568 -0.0166664 -0.09965028 -0.083804324 -0.12644951 0.15892611 0.2676519 -0.078081295 0.0693633 -0.09256119 0.0058236965 0.1994817 0.11071331 -0.16280906 0.04354779 -0.07961205 0.052206703 0.04169986 0.036677327 -0.12874329 0.102935776 0.16219245 -0.00729276 0.09293443 -0.08865454 -0.05469356 -0.07337167 0.04338844 -0.0747728 0.104598746 -0.052561037 0.035369154 0.028189415 0.12585536 0.053538058 -0.05752492 0.006383887 -0.06666655 -0.176752 0.021109672 -0.09760956 0.04445697 0.17115507 -0.067682415 -0.084421284 0.105818406 -0.07244088 -0.23159404 -0.032991886 -0.076437585 -0.034082945 0.060775753 -0.16829209 -0.05105572 0.17742598 -0.06145662 0.08250978 0.0016560202 0.0033672845 0.09314426 -0.15778874 -0.12350645 -0.042646836 -0.05522121 0.22897486 0.13177767 -0.16544501 0.00712155 0.13590242 -0.06322927 -0.1577687 -0.17045338 0.19882604 -0.05347497 0.03444165 0.022434557 0.06522585 -0.040404968 -0.14072777 0.017006334 0.04150517 0.036891293 0.06328002 -0.06316793 -0.056575634 0.07345906 0.008553684 0.026007202 0.030480234 -0.030812701 -0.041110754 0.045893714 -0.06316676 0.11238623 -0.058240466 0.11414323 -0.054711156 0.19155428 -0.050187692 0.12044618 -0.28362998 -0.1892421 0.061113454 -0.08100696 0.038891017 0.10597296 0.029111633 0.061860103 0.042174038 -0.23988755 -0.15235014 -0.0879551 0.15110575 -0.056994837 -0.054794997 -0.095342524 0.044858966 0.0026994336 0.10044259 -0.0049302145 -0.059599936 0.15411709 0.035098463 0.06971225 0.024405599 0.00021416448
29 -0.16391663 -0.007194425 -0.07964794 -0.03141393 -0.107191324 -0.082927264 -0.13567789 0.14254154 0.2871381 -0.08743219 0.06653713 -0.10347529 -0.0030370797 0.19732136 0.12477156 -0.16005969 0.03354488 -0.078618534 0.0707341 0.050151493 0.05674477 -0.14067847 0.11212631 0.17465515 -0.020715721 0.10070376 -0.095434226 -0.058247983 -0.078856 0.052343853 -0.054919746 0.10999444 -0.042771153 0.02872748 0.021987097 0.115225695 0.06562221 -0.0689998 0.0064662015 -0.07695051 -0.18977508 0.03616274 -0.10875138 0.027618397 0.14707392 -0.07858094 -0.08917295 0.12040396 -0.056460764 -0.25101545 -0.047516897 -0.078172795 -0.017799987 0.08040813 -0.18587664 -0.0602803 0.20654982 -0.06813896 0.07660958 -0.006035683 0.01881337 0.10673165 -0.15785941 -0.13793446 -0.053496838 -0.07217597 0.25482368 0.12387896 -0.18286613 0.0015564279 0.1274791 -0.070744075 -0.15444927 -0.1817665 0.21128601 -0.050021134 0.027635336 0.019321656 0.059183735 -0.04826453 -0.15275428 0.018321637 0.05949929 0.03833404 0.04805013 -0.041442566 -0.06488921 0.078211285 0.0065234005 0.013724265 0.066506766 -0.022688827 -0.035671722 0.043473586 -0.06040388 0.11476455 -0.073110856 0.1275102 -0.05894415 0.18694326 -0.0712263 0.13141748 -0.30358532 -0.18105535 0.051180884 -0.08581085 0.030910565 0.095377736 0.017460326 0.06730437 0.037665837 -0.25591537 -0.1603729 -0.089101836 0.1608348 -0.0665041 -0.048128452 -0.103143126 0.031198068 0.006063458 0.11759798 0.005190495 -0.08124533 0.16464466 0.030067312 0.04241276 0.019607216 -0.006177321
22 -0.18591851 -0.04048562 -0.03237175 0.011053814 -0.083148114 -0.08539878 -0.10144554 0.2027036 0.23314907 -0.05709803 0.07687938 -0.08039079 0.020591706 0.20868158 0.11189943 -0.17661901 0.064433716 -0.091758154 0.028011292 0.02847942 0.0033622396 -0.11121738 0.09191422 0.1460267 0.029843869 0.08908499 -0.07408498 -0.04654483 -0.073390916 0.029488156 -0.111301415 0.09741235 -0.06676132 0.06036163 0.04244879 0.14432397 0.04889517 -0.043354645 0.010253843 -0.05662071 -0.15982634 -0.0005446774 -0.065566696 0.08125194 0.22477835 -0.047872175 -0.073342636 0.09306837 -0.0979418 -0.20786913 0.0025891145 -0.06388098 -0.06419161 0.014755157 -0.15073165 -0.03146337 0.13191931 -0.05308768 0.09537604 0.015608175 -0.031857 0.061525393 -0.16173214 -0.109880395 -0.0339891 -0.025957948 0.19976489 0.15857758 -0.14635631 0.014029004 0.14926167 -0.043001465 -0.17780119 -0.17730102 0.19444045 -0.07671101 0.04895524 0.03265757 0.08479995 -0.032061383 -0.12103415 0.020045552 -0.0018967345 0.018669643 0.10696815 -0.116603695 -0.044125613 0.073136516 0.0072995876 0.056497402 -0.030280637 -0.047585487 -0.06564449 0.052725706 -0.063063234 0.11352057 -0.04645232 0.101131 -0.06247699 0.21498273 -0.007408328 0.11458207 -0.2753876 -0.22464404 0.09915015 -0.09148457 0.054387126 0.12811296 0.06925715 0.044039067 0.052459218 -0.21874115 -0.16157073 -0.093090616 0.14001872 -0.049991015 -0.07625547 -0.07878219 0.07591957 0.007425568 0.07191378 -0.023668686 -0.021459464 0.15039395 0.05925936 0.12200718 0.046450835 0.008751543
19 -0.12404999 0.021841144 -0.11596711 -0.07041538 -0.10731262 -0.07229013 -0.1643524 0.06891578 0.30740312 -0.09552235 0.04587943 -0.09834755 -0.030909216 0.17206016 0.117109574 -0.12607704 0.003999887 -0.058609616 0.0956317 0.059494067 0.1063302 -0.1602398 0.12923545 0.18970895 -0.073141865 0.1014063 -0.11550628 -0.06821616 -0.07269829 0.067155614 0.0013692427 0.11727725 -0.012740186 -0.008172711 0.005128984 0.08491877 0.06614144 -0.08602027 0.0025921618 -0.08742971 -0.18899754 0.07392682 -0.14608642 -0.019422427 0.06705088 -0.10168119 -0.10692464 0.12847592 -0.009956397 -0.26818216 -0.08283714 -0.08743591 0.0337212 0.1349844 -0.19830129 -0.08002895 0.24823637 -0.07014144 0.047819883 -0.018189402 0.05817165 0.1371846 -0.14278792 -0.14873986 -0.059148837 -0.10268007 0.27584907 0.07590429 -0.19119282 -0.013767445 0.10399492 -0.09931351 -0.109396845 -0.16177978 0.21234064 -0.026407512 0.008951122 0.008587706 0.037012294 -0.057291858 -0.1547011 0.021547396 0.11527973 0.054892484 -0.019011034 0.03470073 -0.072768584 0.08065848 0.0076912995 -0.033864405 0.13964246 -0.0015488204 -0.008824944 0.027765464 -0.054644167 0.09873675 -0.089190826 0.12491825 -0.046565555 0.13018791 -0.13097252 0.12228181 -0.29454908 -0.12372321 -0.008851107 -0.07490477 0.0073556365 0.051520277 -0.037422817 0.08786464 0.022851845 -0.25907993 -0.12762597 -0.06539256 0.16633031 -0.07466575 -0.028548716 -0.11425925 -0.016690023 0.011855655 0.14288716 0.031277478 -0.13255516 0.15118776 -0.002388075 -0.03161276 -0.00027832878 -0.020449493
23 -0.14482597 0.006647167 -0.10100584 -0.05227289 -0.10753144 -0.07928107 -0.1526423 0.108380415 0.295758 -0.088265575 0.058172494 -0.098888695 -0.014335173 0.18791136 0.11552206 -0.1425956 0.01697997 -0.06778611 0.082770534 0.051958427 0.078417666 -0.1592018 0.118753985 0.18555757 -0.04768758 0.096905544 -0.10499194 -0.06513522 -0.075326934 0.05752973 -0.027260352 0.11371214 -0.026103703 0.00910078 0.013556646 0.10629935 0.06857942 -0.08035573 0.01094412 -0.08315965 -0.18707903 0.05137609 -0.1279766 0.008464053 0.11345725 -0.087263025 -0.1016007 0.121500604 -0.03287691 -0.25988328 -0.067123815 -0.08299072 0.008519269 0.10567881 -0.19180931 -0.07125895 0.22900891 -0.065787144 0.06690597 -0.014340949 0.035736702 0.1206959 -0.15093838 -0.13711672 -0.05702476 -0.08301307 0.2704622 0.106316455 -0.19128917 -0.0006059501 0.12619019 -0.08427302 -0.13153847 -0.17165323 0.2181634 -0.043582506 0.018667938 0.012062435 0.051289227 -0.047367267 -0.15846997 0.014831961 0.08767031 0.053202 0.016881745 -0.011659343 -0.069122575 0.084106624 0.0032918728 -0.004461478 0.10517069 -0.0145211555 -0.021553949 0.032961715 -0.057555202 0.108980075 -0.081554234 0.13050558 -0.05369003 0.16262934 -0.10341896 0.12754636 -0.30371994 -0.16032518 0.029309427 -0.083304636 0.023176821 0.07627369 -0.0033573308 0.08357235 0.026316434 -0.26231435 -0.14300002 -0.07890509 0.16775048 -0.0735491 -0.03950406 -0.10602638 0.003089412 0.010107939 0.12870875 0.016385335 -0.108940125 0.15916274 0.013494924 0.010478238 0.008241827 -0.012481691
17 -0.24616453 -0.095664434 0.0066890605 0.06783536 -0.08216847 -0.09792267 -0.06114796 0.3043709 0.20362951 -0.04491807 0.10467218 -0.06735761 0.054777637 0.25596702 0.1337808 -0.23266403 0.11081997 -0.107915804 -0.0021240162 0.013178183 -0.058947694 -0.07399181 0.068123184 0.1344924 0.09715024 0.098772086 -0.06333422 -0.051354617 -0.07345687 0.015111329 -0.19931968 0.09853194 -0.10905696 0.110029854 0.07622862 0.20557931 0.04639772 -0.012398125 0.00065627124 -0.035745163 -0.15269998 -0.05583579 -0.040276825 0.13786334 0.3409451 -0.023168234 -0.068836346 0.072719485 -0.16501498 -0.19255555 0.05686704 -0.0675455 -0.13192137 -0.063289255 -0.13538621 0.0048365495 0.05834171 -0.054138497 0.13666245 0.053608585 -0.07300294 0.030243289 -0.19461341 -0.11037992 -0.027276214 0.019386161 0.16820312 0.21622233 -0.12452486 0.036315233 0.17405906 -0.006573069 -0.24022272 -0.21478398 0.18702061 -0.112907425 0.07451542 0.06242136 0.12801626 -0.020679237 -0.100141466 0.020211933 -0.071393 -0.0012047527 0.18797626 -0.22357859 -0.031409208 0.062454425 0.0064938236 0.11712232 -0.15151118 -0.09277949 -0.11025642 0.05661695 -0.083359525 0.13050659 -0.010453901 0.09746541 -0.07669699 0.29637706 0.080489285 0.1071912 -0.28074566 -0.3126353 0.16985436 -0.10522561 0.0992977 0.19446859 0.1397692 0.018630663 0.0716036 -0.21659388 -0.20466831 -0.1207881 0.1258147 -0.04825956 -0.11870046 -0.07233367 0.14950454 -0.006027068 0.03231561 -0.05676946 0.06587446 0.1527043 0.10770938 0.2127252 0.07996447 0.027566573
13 -0.20132034 -0.04927429 -0.025054393 0.033893034 -0.08192339 -0.08593457 -0.09020852 0.2206798 0.21972048 -0.054304775 0.079242185 -0.08116326 0.026453992 0.21759906 0.10942184 -0.1827327 0.077308625 -0.10322362 0.013845415 0.021942796 -0.02190729 -0.10320969 0.08087373 0.13570456 0.048268326 0.087535 -0.06725891 -0.042254776 -0.07049213 0.024276415 -0.13533978 0.09554692 -0.08122327 0.07080219 0.04243794 0.1584339 0.039688673 -0.03516149 0.008960934 -0.052868415 -0.15605226 -0.021748206 -0.056086693 0.094432406 0.25351465 -0.030762421 -0.06389543 0.087087594 -0.1110961 -0.19483736 0.021036826 -0.060556736 -0.08068995 -0.0067317793 -0.1283733 -0.02160636 0.09716822 -0.05569145 0.097719595 0.024317365 -0.045495104 0.045287117 -0.16188656 -0.09613403 -0.026209721 -0.0073486 0.18611683 0.17588994 -0.13383482 0.028160252 0.14981663 -0.034316953 -0.19481277 -0.17185798 0.18760835 -0.08234933 0.058869466 0.041075714 0.08877678 -0.031347487 -0.1166306 0.01852672 -0.02712382 0.014825295 0.13898474 -0.15011221 -0.040974494 0.062354334 0.0102310935 0.07145711 -0.062136658 -0.0559562 -0.07696088 0.05829944 -0.06863032 0.11121895 -0.039486032 0.10112411 -0.07350219 0.24360363 0.018542062 0.11676121 -0.27524045 -0.24842888 0.12066762 -0.09166194 0.06381193 0.14903906 0.087635115 0.042554617 0.05034375 -0.21606897 -0.17713784 -0.098726556 0.13427174 -0.04688415 -0.0799811 -0.074301496 0.09177776 0.003213521 0.055535458 -0.031705685 0.006554862 0.15431179 0.0735773 0.15033525 0.045176078 0.012376434
27 -0.13484843 0.0019321293 -0.09300384 -0.046541058 -0.1021147 -0.07199889 -0.14089867 0.108550474 0.2797377 -0.08108927 0.056152415 -0.09819584 -0.010160562 0.17375332 0.11535264 -0.13815433 0.023064218 -0.07466586 0.07480556 0.052097313 0.06606295 -0.14705235 0.11476125 0.1777174 -0.043806653 0.095866434 -0.10116299 -0.05795894 -0.07560236 0.05672885 -0.03494235 0.1051451 -0.030227404 0.011142423 0.014693414 0.09703337 0.059220742 -0.074862435 0.011787313 -0.08107022 -0.18545501 0.045503143 -0.12321437 0.013607899 0.1132287 -0.08649295 -0.09509968 0.12120044 -0.037457287 -0.25117227 -0.057298858 -0.082634114 -0.00013437914 0.09789792 -0.17990616 -0.06808943 0.21870248 -0.061459634 0.06796377 -0.01231294 0.027044255 0.11426647 -0.1493941 -0.12975536 -0.052810147 -0.08085705 0.25422376 0.10395256 -0.179995 -0.0005315852 0.11716363 -0.082050435 -0.13504945 -0.17205489 0.20801173 -0.03784602 0.01822079 0.01709683 0.051352944 -0.049880058 -0.14649184 0.019697301 0.0770044 0.04644338 0.022845529 -0.011924401 -0.07077744 0.07944927 0.0018800861 -0.0064071976 0.08734135 -0.014006978 -0.023188928 0.03253603 -0.05761883 0.10788263 -0.074070625 0.12020085 -0.047782265 0.15521361 -0.09503561 0.12473046 -0.28980288 -0.15658805 0.024709098 -0.076770514 0.021141592 0.07883834 -0.0075248135 0.072721094 0.028565394 -0.24831606 -0.13923305 -0.076753095 0.16325703 -0.063287646 -0.039344884 -0.104988776 0.012288524 0.0063257185 0.12336661 0.010200248 -0.097401924 0.15480028 0.016867118 0.017068751 0.011486588 -0.007367327
21 -0.16012123 0.0040306277 -0.09999764 -0.041936927 -0.110535406 -0.087573044 -0.15925197 0.13095383 0.3098735 -0.09185968 0.0672103 -0.10347499 -0.013814747 0.2036617 0.122002356 -0.1589391 0.023761807 -0.07584086 0.07888976 0.05071923 0.0728938 -0.15817048 0.12982255 0.18856454 -0.039597437 0.10575703 -0.10816732 -0.06755153 -0.07750215 0.060575064 -0.040173862 0.121787384 -0.034406036 0.014953039 0.021263653 0.11922246 0.06451208 -0.08055682 0.01090145 -0.08264959 -0.19729911 0.049891688 -0.12652853 0.018541707 0.1314402 -0.089139804 -0.10361239 0.12763384 -0.04591968 -0.27557456 -0.06471861 -0.08942639 -0.003663748 0.099018574 -0.2001315 -0.07266803 0.23055191 -0.07265473 0.076926835 -0.006644101 0.027682751 0.11795606 -0.1605729 -0.14511001 -0.0527228 -0.08472633 0.27553484 0.120181814 -0.19206394 -0.0004574695 0.13726696 -0.08856086 -0.1494698 -0.18960625 0.23027663 -0.05166397 0.027622908 0.022047136 0.057530638 -0.055272363 -0.16093686 0.020769931 0.08010405 0.05180793 0.030855278 -0.023090644 -0.069272175 0.08670435 0.0028659706 0.0024974004 0.093486264 -0.020860396 -0.029489458 0.038386624 -0.063086756 0.11270683 -0.0806383 0.13344945 -0.059198096 0.17721115 -0.09646525 0.13303149 -0.31795204 -0.17834255 0.037822634 -0.08613356 0.025028093 0.09001734 -0.0016041277 0.08230813 0.028827934 -0.27182713 -0.15445285 -0.085509226 0.17708746 -0.07252799 -0.043689698 -0.1134534 0.018334895 0.0064263665 0.12566483 0.01360323 -0.10576176 0.16312039 0.019278256 0.027982809 0.017161494 -0.008156416
18 -0.20809771 -0.043319944 -0.04666372 0.016842088 -0.09496555 -0.09154794 -0.11206643 0.22148415 0.26100323 -0.06646785 0.08499754 -0.09634886 0.019313797 0.22956632 0.1161881 -0.19214998 0.06633855 -0.10590081 0.033954434 0.030143104 0.0045624417 -0.12630843 0.102354646 0.1526723 0.02811004 0.08873139 -0.08078979 -0.044668168 -0.08228557 0.03327375 -0.1131288 0.10895605 -0.07259482 0.06501175 0.03720267 0.1645172 0.047456406 -0.046629317 0.010131138 -0.063492306 -0.18190944 -0.0052536293 -0.072767355 0.08232654 0.24580646 -0.05310255 -0.07430654 0.10602865 -0.109254114 -0.2247586 -0.0018037471 -0.064027086 -0.06718294 0.02767627 -0.15771888 -0.03536549 0.14207415 -0.061556917 0.09732299 0.012491302 -0.03357495 0.07231134 -0.18003468 -0.11992305 -0.036285922 -0.029474042 0.22030714 0.17443195 -0.16545738 0.017973786 0.15845168 -0.049331944 -0.18949077 -0.18728119 0.20788433 -0.0773222 0.053286973 0.032794118 0.086825766 -0.033928066 -0.14276868 0.019741906 -2.7974835e-05 0.02337315 0.11991945 -0.12753135 -0.0479368 0.07866229 0.0116747115 0.062867716 -0.025084727 -0.04509219 -0.07021238 0.053228594 -0.070676394 0.12406936 -0.052535012 0.10816188 -0.07468552 0.23657113 -0.013378914 0.13186808 -0.3042955 -0.24026234 0.11183644 -0.09316808 0.05695872 0.1438712 0.073747285 0.059869274 0.052900463 -0.24212642 -0.17867689 -0.106876776 0.15456714 -0.049531978 -0.076356724 -0.08791506 0.0776568 0.0070916093 0.080907375 -0.02713258 -0.023217678 0.17059864 0.06645244 0.13240534 0.044529337 0.010690764
16 -0.11654622 0.020955047 -0.12267533 -0.06951678 -0.1110791 -0.07438827 -0.15859957 0.06724299 0.3062855 -0.088602796 0.047608986 -0.10346353 -0.025749728 0.16658942 0.11409522 -0.11902406 0.0021341452 -0.06359574 0.09349434 0.05459765 0.103821374 -0.1697484 0.12784941 0.18917312 -0.076377995 0.09663509 -0.11177884 -0.07268112 -0.07795365 0.06586803 0.00049506885 0.11728139 -0.013811843 -0.0060057375 -0.00076289254 0.08726542 0.06907417 -0.089352846 0.0015116584 -0.08413011 -0.19414423 0.07077129 -0.14701356 -0.020449245 0.067433104 -0.100766346 -0.10524489 0.12930126 -0.0062095295 -0.26474148 -0.08708292 -0.08483259 0.032826412 0.13723843 -0.19446662 -0.07682637 0.25377086 -0.068331525 0.045871362 -0.022309354 0.05716551 0.1307297 -0.14056377 -0.14228131 -0.059243992 -0.10338057 0.27228484 0.07212365 -0.18717368 -0.008036367 0.10273906 -0.0933281 -0.10697714 -0.15545009 0.20348702 -0.029415581 0.011019956 0.0024386435 0.033490784 -0.057380393 -0.1597345 0.016984053 0.11385034 0.060808625 -0.015468573 0.039318528 -0.06827943 0.08223988 0.007029423 -0.033610433 0.14434138 -0.0021530434 -0.008268148 0.027015664 -0.052414756 0.09581439 -0.08568094 0.12570895 -0.041254196 0.13042596 -0.12565471 0.12231338 -0.2825845 -0.11414999 -0.0043261643 -0.06940921 0.008517857 0.0516195 -0.041845676 0.085031435 0.016365997 -0.25760862 -0.12582824 -0.06955784 0.16020328 -0.06778641 -0.025526458 -0.111869626 -0.022716884 0.009127227 0.13605455 0.032523643 -0.13045256 0.14283638 -0.007851739 -0.033492725 -0.006653626 -0.015584721
10 -0.15360218 -0.009716637 -0.07845903 -0.026425147 -0.10125459 -0.08031599 -0.1319687 0.13731676 0.26722676 -0.076509625 0.06765541 -0.089236416 -0.005039006 0.18653929 0.1188064 -0.15268537 0.036401823 -0.07926201 0.06550066 0.04526278 0.04786871 -0.1365211 0.106553294 0.16703516 -0.017619386 0.09299777 -0.09492245 -0.05917301 -0.075859025 0.048530415 -0.064761996 0.10465202 -0.04295072 0.033148635 0.0244174 0.1202433 0.057732698 -0.066374466 0.009973535 -0.070596024 -0.17872095 0.033914592 -0.11077011 0.029462973 0.15192357 -0.07194197 -0.08683449 0.10975099 -0.05945489 -0.24017859 -0.042145453 -0.07888139 -0.019531561 0.075844474 -0.17144734 -0.05583422 0.18641806 -0.06437069 0.07890974 0.0015183487 0.014357408 0.09542108 -0.1530131 -0.12785152 -0.049388442 -0.06334767 0.24252132 0.120966524 -0.17036977 0.0021598507 0.123885095 -0.068013676 -0.1506388 -0.17194821 0.2008797 -0.050451286 0.02622409 0.026755128 0.058812987 -0.041408233 -0.14261815 0.016485328 0.05578711 0.03925249 0.04752156 -0.050641593 -0.05819268 0.072509736 0.0031274522 0.016013885 0.04961504 -0.028171647 -0.040391564 0.035879813 -0.059220046 0.104602225 -0.062312905 0.11667537 -0.058139447 0.18229207 -0.06522341 0.11459145 -0.28463078 -0.17969733 0.052458674 -0.08111908 0.038121723 0.09843175 0.02048732 0.06394922 0.031669553 -0.24353494 -0.15219629 -0.08390748 0.15226737 -0.06489405 -0.054194838 -0.100352965 0.031288065 0.0074034324 0.1020401 0.001596691 -0.073633485 0.15153235 0.031453557 0.045371916 0.019266866 -0.0012828397
15 -0.14843027 -0.0035284387 -0.09455462 -0.04041475 -0.10561434 -0.078842655 -0.14817086 0.12285623 0.28683448 -0.08403999 0.06061784 -0.0969566 -0.00819931 0.18662101 0.12024711 -0.14659955 0.02945133 -0.07203667 0.075692765 0.053068765 0.06793802 -0.15103447 0.11509493 0.17667492 -0.0366409 0.09846055 -0.09976642 -0.062381633 -0.07566468 0.05335782 -0.045071803 0.11245195 -0.035248734 0.016111782 0.019061418 0.1091485 0.05828089 -0.07108535 0.0042075706 -0.07899416 -0.18414906 0.04467063 -0.123390414 0.015742952 0.12188401 -0.08663668 -0.097421944 0.11705606 -0.046792395 -0.25657764 -0.055234704 -0.08591243 -0.00041247124 0.09804908 -0.18270196 -0.06268107 0.21271482 -0.06776389 0.07110645 -0.0036744308 0.025387803 0.111535214 -0.1560758 -0.14090012 -0.053907342 -0.07600365 0.2550012 0.10780015 -0.1784657 0.0030170607 0.1275961 -0.079949126 -0.13842039 -0.17112008 0.21175273 -0.046778608 0.02512218 0.015851593 0.05391616 -0.0509534 -0.14597435 0.014084294 0.07810348 0.046243098 0.024408674 -0.02324504 -0.062726825 0.081783906 0.0032031226 0.0049172635 0.08564473 -0.016948426 -0.027689612 0.037364766 -0.062847205 0.10915286 -0.07602305 0.11865619 -0.05123061 0.1663128 -0.08898012 0.12310854 -0.29311472 -0.15726556 0.032652296 -0.079446845 0.027935538 0.08521388 0.0047028637 0.074860446 0.029705832 -0.25386 -0.14642318 -0.08027093 0.16008332 -0.0637948 -0.04052319 -0.10575514 0.015296704 0.0066805948 0.12116588 0.009179282 -0.09872076 0.15517573 0.017519401 0.024851626 0.017572777 -0.008648992
12 -0.19268924 -0.040059283 -0.039285682 0.020270618 -0.086134344 -0.081125356 -0.10682033 0.20533526 0.23698038 -0.060279325 0.07940233 -0.0908312 0.018355777 0.21518128 0.10909839 -0.17929201 0.065307915 -0.09047098 0.025413638 0.03180797 -0.0030302117 -0.11118175 0.09633482 0.13979061 0.031221503 0.08981871 -0.077272415 -0.04345058 -0.07662263 0.034394335 -0.11743213 0.09733342 -0.07330335 0.059940353 0.03814179 0.15201005 0.044024594 -0.043402303 0.010446603 -0.062263623 -0.16490136 -0.003202758 -0.06723701 0.081791356 0.23374963 -0.046859413 -0.06703595 0.09504877 -0.10248436 -0.21088207 0.006238444 -0.06081604 -0.06885547 0.013160454 -0.1475804 -0.033550758 0.12281714 -0.05555236 0.09705816 0.017407794 -0.034153737 0.060725063 -0.1634277 -0.1058263 -0.031643175 -0.023405513 0.20089269 0.15871568 -0.14994062 0.020630427 0.14735053 -0.044135034 -0.17946158 -0.17370035 0.19426051 -0.07192015 0.049751457 0.035427906 0.0776161 -0.02982118 -0.12512188 0.019631047 -0.0028256807 0.02543717 0.11242983 -0.124248736 -0.04349056 0.07223213 0.0074841515 0.060368765 -0.027641363 -0.049164575 -0.06604489 0.049927656 -0.06932817 0.11566477 -0.046747476 0.104268506 -0.06709203 0.22478756 -0.0020100782 0.11361498 -0.27405605 -0.22498108 0.103260584 -0.0906241 0.059893243 0.13759682 0.07254336 0.051464826 0.048306312 -0.22173975 -0.16334844 -0.096613705 0.14222667 -0.048356447 -0.07139717 -0.07884946 0.077053726 0.0015402173 0.07235756 -0.03066155 -0.013875639 0.15582098 0.06650899 0.12396152 0.041459944 0.006837021
